<?xml version="1.0"?>
<opencv_storage>
<myhaar type_id="opencv-haar-classifier">
  <size>
    24 24</size>
  <stages>
    <_>
      <trees>
        <_>
          <_>
            <feature>
              <rects>
                <_>
                  3 20 17 4 -1.</_>
                <_>
                  3 22 17 2 2.</_></rects>
              <tilted>0</tilted></feature>
            <threshold>0.0386666394770145</threshold>
            <left_val>-0.9346783757209778</left_val>
            <right_val>0.9119117856025696</right_val></_></_>
        <_>
          <_>
            <feature>
              <rects>
                <_>
                  15 1 8 8 -1.</_>
                <_>
                  15 1 8 4 2.</_></rects>
              <tilted>1</tilted></feature>
            <threshold>0.0236607007682323</threshold>
            <left_val>-0.8701454997062683</left_val>
            <right_val>0.4391623139381409</right_val></_></_></trees>
      <stage_threshold>-0.4955160915851593</stage_threshold>
      <parent>-1</parent>
      <next>-1</next></_>
    <_>
      <trees>
        <_>
          <_>
            <feature>
              <rects>
                <_>
                  3 1 18 9 -1.</_>
                <_>
                  9 4 6 3 9.</_></rects>
              <tilted>0</tilted></feature>
            <threshold>-0.1905701011419296</threshold>
            <left_val>0.8543732166290283</left_val>
            <right_val>-0.8902255296707153</right_val></_></_>
        <_>
          <_>
            <feature>
              <rects>
                <_>
                  3 20 20 4 -1.</_>
                <_>
                  3 22 20 2 2.</_></rects>
              <tilted>0</tilted></feature>
            <threshold>0.0514803715050220</threshold>
            <left_val>-0.8161721825599670</left_val>
            <right_val>0.7479076981544495</right_val></_></_>
        <_>
          <_>
            <feature>
              <rects>
                <_>
                  0 2 24 21 -1.</_>
                <_>
                  8 9 8 7 9.</_></rects>
              <tilted>0</tilted></feature>
            <threshold>-0.6483659744262695</threshold>
            <left_val>0.7140262126922607</left_val>
            <right_val>-0.8811206221580505</right_val></_></_></trees>
      <stage_threshold>-0.9923716187477112</stage_threshold>
      <parent>0</parent>
      <next>-1</next></_>
    <_>
      <trees>
        <_>
          <_>
            <feature>
              <rects>
                <_>
                  3 20 15 4 -1.</_>
                <_>
                  3 22 15 2 2.</_></rects>
              <tilted>0</tilted></feature>
            <threshold>0.0390186309814453</threshold>
            <left_val>-0.8855016827583313</left_val>
            <right_val>0.7838590741157532</right_val></_></_>
        <_>
          <_>
            <feature>
              <rects>
                <_>
                  14 2 3 9 -1.</_>
                <_>
                  11 5 3 3 3.</_></rects>
              <tilted>1</tilted></feature>
            <threshold>-0.0434534698724747</threshold>
            <left_val>0.4416759014129639</left_val>
            <right_val>-0.2166015952825546</right_val></_></_>
        <_>
          <_>
            <feature>
              <rects>
                <_>
                  7 5 6 1 -1.</_>
                <_>
                  10 5 3 1 2.</_></rects>
              <tilted>0</tilted></feature>
            <threshold>-4.2752670124173164e-003</threshold>
            <left_val>0.7357699871063232</left_val>
            <right_val>-0.8204864859580994</right_val></_></_></trees>
      <stage_threshold>-1.2643120288848877</stage_threshold>
      <parent>1</parent>
      <next>-1</next></_>
    <_>
      <trees>
        <_>
          <_>
            <feature>
              <rects>
                <_>
                  10 2 6 10 -1.</_>
                <_>
                  10 2 3 10 2.</_></rects>
              <tilted>1</tilted></feature>
            <threshold>0.0888355970382690</threshold>
            <left_val>-0.7926176190376282</left_val>
            <right_val>0.6934819817543030</right_val></_></_>
        <_>
          <_>
            <feature>
              <rects>
                <_>
                  4 20 20 4 -1.</_>
                <_>
                  4 22 20 2 2.</_></rects>
              <tilted>0</tilted></feature>
            <threshold>0.0530434213578701</threshold>
            <left_val>-0.7920506000518799</left_val>
            <right_val>0.6419953703880310</right_val></_></_>
        <_>
          <_>
            <feature>
              <rects>
                <_>
                  11 1 8 4 -1.</_>
                <_>
                  13 3 4 4 2.</_></rects>
              <tilted>1</tilted></feature>
            <threshold>-0.0332203395664692</threshold>
            <left_val>0.5439665913581848</left_val>
            <right_val>-0.8664215207099915</right_val></_></_>
        <_>
          <_>
            <feature>
              <rects>
                <_>
                  20 9 4 13 -1.</_>
                <_>
                  20 9 2 13 2.</_></rects>
              <tilted>0</tilted></feature>
            <threshold>-9.9132210016250610e-004</threshold>
            <left_val>0.2515192925930023</left_val>
            <right_val>-0.9830915927886963</right_val></_></_></trees>
      <stage_threshold>-0.7891823053359985</stage_threshold>
      <parent>2</parent>
      <next>-1</next></_>
    <_>
      <trees>
        <_>
          <_>
            <feature>
              <rects>
                <_>
                  7 8 1 8 -1.</_>
                <_>
                  7 12 1 4 2.</_></rects>
              <tilted>0</tilted></feature>
            <threshold>-4.2726700194180012e-003</threshold>
            <left_val>0.5736616253852844</left_val>
            <right_val>-0.8174806237220764</right_val></_></_>
        <_>
          <_>
            <feature>
              <rects>
                <_>
                  15 12 9 8 -1.</_>
                <_>
                  18 12 3 8 3.</_></rects>
              <tilted>0</tilted></feature>
            <threshold>-0.0242167003452778</threshold>
            <left_val>0.6261808276176453</left_val>
            <right_val>-0.6703457832336426</right_val></_></_>
        <_>
          <_>
            <feature>
              <rects>
                <_>
                  0 9 4 11 -1.</_>
                <_>
                  2 9 2 11 2.</_></rects>
              <tilted>0</tilted></feature>
            <threshold>-0.0230211801826954</threshold>
            <left_val>0.7460045218467712</left_val>
            <right_val>-0.5676180720329285</right_val></_></_>
        <_>
          <_>
            <feature>
              <rects>
                <_>
                  0 0 24 4 -1.</_>
                <_>
                  0 2 24 2 2.</_></rects>
              <tilted>0</tilted></feature>
            <threshold>-0.0177349392324686</threshold>
            <left_val>0.5816590189933777</left_val>
            <right_val>-0.7200782895088196</right_val></_></_>
        <_>
          <_>
            <feature>
              <rects>
                <_>
                  5 0 12 4 -1.</_>
                <_>
                  5 0 6 4 2.</_></rects>
              <tilted>1</tilted></feature>
            <threshold>0.0909238606691360</threshold>
            <left_val>-0.9649373888969421</left_val>
            <right_val>0.4034355878829956</right_val></_></_></trees>
      <stage_threshold>-1.0703500509262085</stage_threshold>
      <parent>3</parent>
      <next>-1</next></_>
    <_>
      <trees>
        <_>
          <_>
            <feature>
              <rects>
                <_>
                  6 18 10 6 -1.</_>
                <_>
                  6 20 10 2 3.</_></rects>
              <tilted>0</tilted></feature>
            <threshold>-0.0279727801680565</threshold>
            <left_val>0.6839268803596497</left_val>
            <right_val>-0.7327352166175842</right_val></_></_>
        <_>
          <_>
            <feature>
              <rects>
                <_>
                  12 1 4 5 -1.</_>
                <_>
                  13 2 2 5 2.</_></rects>
              <tilted>1</tilted></feature>
            <threshold>9.8490491509437561e-003</threshold>
            <left_val>0.0670694783329964</left_val>
            <right_val>-0.9999982714653015</right_val></_></_>
        <_>
          <_>
            <feature>
              <rects>
                <_>
                  12 6 10 3 -1.</_>
                <_>
                  11 7 10 1 3.</_></rects>
              <tilted>1</tilted></feature>
            <threshold>-4.9696271307766438e-003</threshold>
            <left_val>0.5676786899566650</left_val>
            <right_val>-0.6864311099052429</right_val></_></_>
        <_>
          <_>
            <feature>
              <rects>
                <_>
                  17 12 6 6 -1.</_>
                <_>
                  19 14 2 6 3.</_></rects>
              <tilted>1</tilted></feature>
            <threshold>-0.0222331807017326</threshold>
            <left_val>0.5956938266754150</left_val>
            <right_val>-0.4718697965145111</right_val></_></_>
        <_>
          <_>
            <feature>
              <rects>
                <_>
                  0 13 9 9 -1.</_>
                <_>
                  3 13 3 9 3.</_></rects>
              <tilted>0</tilted></feature>
            <threshold>-0.0308790393173695</threshold>
            <left_val>0.7168108224868774</left_val>
            <right_val>-0.6666774153709412</right_val></_></_></trees>
      <stage_threshold>-1.1071560382843018</stage_threshold>
      <parent>4</parent>
      <next>-1</next></_>
    <_>
      <trees>
        <_>
          <_>
            <feature>
              <rects>
                <_>
                  12 4 6 4 -1.</_>
                <_>
                  14 6 2 4 3.</_></rects>
              <tilted>1</tilted></feature>
            <threshold>-0.0224442407488823</threshold>
            <left_val>0.5182191729545593</left_val>
            <right_val>-0.7611029744148254</right_val></_></_>
        <_>
          <_>
            <feature>
              <rects>
                <_>
                  22 14 2 8 -1.</_>
                <_>
                  22 14 1 8 2.</_></rects>
              <tilted>1</tilted></feature>
            <threshold>-0.0114641496911645</threshold>
            <left_val>0.3811818957328796</left_val>
            <right_val>-0.4267100989818573</right_val></_></_>
        <_>
          <_>
            <feature>
              <rects>
                <_>
                  0 17 18 6 -1.</_>
                <_>
                  6 19 6 2 9.</_></rects>
              <tilted>0</tilted></feature>
            <threshold>-0.1548628062009811</threshold>
            <left_val>0.7779095172882080</left_val>
            <right_val>-0.4664947092533112</right_val></_></_>
        <_>
          <_>
            <feature>
              <rects>
                <_>
                  22 9 2 1 -1.</_>
                <_>
                  22 9 1 1 2.</_></rects>
              <tilted>1</tilted></feature>
            <threshold>-4.1656120447441936e-004</threshold>
            <left_val>-0.8284960985183716</left_val>
            <right_val>0.2549943923950195</right_val></_></_>
        <_>
          <_>
            <feature>
              <rects>
                <_>
                  2 9 1 2 -1.</_>
                <_>
                  2 9 1 1 2.</_></rects>
              <tilted>1</tilted></feature>
            <threshold>1.0811549873324111e-004</threshold>
            <left_val>0.3222027122974396</left_val>
            <right_val>-1.0000009536743164</right_val></_></_></trees>
      <stage_threshold>-1.0771110057830811</stage_threshold>
      <parent>5</parent>
      <next>-1</next></_>
    <_>
      <trees>
        <_>
          <_>
            <feature>
              <rects>
                <_>
                  12 0 4 4 -1.</_>
                <_>
                  11 1 4 2 2.</_></rects>
              <tilted>1</tilted></feature>
            <threshold>-7.3678730987012386e-003</threshold>
            <left_val>0.5680664181709290</left_val>
            <right_val>-0.7097591161727905</right_val></_></_>
        <_>
          <_>
            <feature>
              <rects>
                <_>
                  4 8 18 8 -1.</_>
                <_>
                  4 12 18 4 2.</_></rects>
              <tilted>0</tilted></feature>
            <threshold>-0.0522131584584713</threshold>
            <left_val>0.4846937060356140</left_val>
            <right_val>-0.6902707219123840</right_val></_></_>
        <_>
          <_>
            <feature>
              <rects>
                <_>
                  0 1 24 15 -1.</_>
                <_>
                  8 6 8 5 9.</_></rects>
              <tilted>0</tilted></feature>
            <threshold>-0.3617913126945496</threshold>
            <left_val>0.3283827006816864</left_val>
            <right_val>-0.9262920022010803</right_val></_></_>
        <_>
          <_>
            <feature>
              <rects>
                <_>
                  13 15 8 9 -1.</_>
                <_>
                  13 18 8 3 3.</_></rects>
              <tilted>0</tilted></feature>
            <threshold>-0.0190006792545319</threshold>
            <left_val>0.2963142096996307</left_val>
            <right_val>-0.5954830050468445</right_val></_></_>
        <_>
          <_>
            <feature>
              <rects>
                <_>
                  12 5 10 3 -1.</_>
                <_>
                  11 6 10 1 3.</_></rects>
              <tilted>1</tilted></feature>
            <threshold>-3.2131550833582878e-003</threshold>
            <left_val>0.4022389054298401</left_val>
            <right_val>-0.8404359817504883</right_val></_></_></trees>
      <stage_threshold>-1.2648910284042358</stage_threshold>
      <parent>6</parent>
      <next>-1</next></_>
    <_>
      <trees>
        <_>
          <_>
            <feature>
              <rects>
                <_>
                  3 10 17 6 -1.</_>
                <_>
                  3 13 17 3 2.</_></rects>
              <tilted>0</tilted></feature>
            <threshold>-0.0504035986959934</threshold>
            <left_val>0.7153043746948242</left_val>
            <right_val>-0.5452339053153992</right_val></_></_>
        <_>
          <_>
            <feature>
              <rects>
                <_>
                  18 18 2 6 -1.</_>
                <_>
                  18 21 2 3 2.</_></rects>
              <tilted>0</tilted></feature>
            <threshold>5.5533759295940399e-003</threshold>
            <left_val>-0.6649184823036194</left_val>
            <right_val>0.4081577062606812</right_val></_></_>
        <_>
          <_>
            <feature>
              <rects>
                <_>
                  4 18 1 6 -1.</_>
                <_>
                  4 21 1 3 2.</_></rects>
              <tilted>0</tilted></feature>
            <threshold>4.2987051419913769e-003</threshold>
            <left_val>-0.7512838244438171</left_val>
            <right_val>0.4771381914615631</right_val></_></_>
        <_>
          <_>
            <feature>
              <rects>
                <_>
                  16 5 3 6 -1.</_>
                <_>
                  17 5 1 6 3.</_></rects>
              <tilted>0</tilted></feature>
            <threshold>5.3472357103601098e-004</threshold>
            <left_val>0.2026766985654831</left_val>
            <right_val>-0.6362876892089844</right_val></_></_></trees>
      <stage_threshold>-0.6856833100318909</stage_threshold>
      <parent>7</parent>
      <next>-1</next></_>
    <_>
      <trees>
        <_>
          <_>
            <feature>
              <rects>
                <_>
                  0 3 24 4 -1.</_>
                <_>
                  8 3 8 4 3.</_></rects>
              <tilted>0</tilted></feature>
            <threshold>-0.1192483007907867</threshold>
            <left_val>0.5692363977432251</left_val>
            <right_val>-0.7300369143486023</right_val></_></_>
        <_>
          <_>
            <feature>
              <rects>
                <_>
                  22 9 2 1 -1.</_>
                <_>
                  22 9 1 1 2.</_></rects>
              <tilted>1</tilted></feature>
            <threshold>8.7482680100947618e-005</threshold>
            <left_val>0.3325009047985077</left_val>
            <right_val>-0.8025310039520264</right_val></_></_>
        <_>
          <_>
            <feature>
              <rects>
                <_>
                  8 6 16 1 -1.</_>
                <_>
                  12 10 8 1 2.</_></rects>
              <tilted>1</tilted></feature>
            <threshold>-0.0289475005120039</threshold>
            <left_val>0.5344175100326538</left_val>
            <right_val>-0.6253281831741333</right_val></_></_>
        <_>
          <_>
            <feature>
              <rects>
                <_>
                  16 0 2 14 -1.</_>
                <_>
                  17 0 1 7 2.</_>
                <_>
                  16 7 1 7 2.</_></rects>
              <tilted>0</tilted></feature>
            <threshold>-9.7264238866046071e-004</threshold>
            <left_val>-0.6169034838676453</left_val>
            <right_val>0.1825546026229858</right_val></_></_>
        <_>
          <_>
            <feature>
              <rects>
                <_>
                  6 0 2 14 -1.</_>
                <_>
                  6 0 1 7 2.</_>
                <_>
                  7 7 1 7 2.</_></rects>
              <tilted>0</tilted></feature>
            <threshold>-6.6679489100351930e-004</threshold>
            <left_val>-0.9305359721183777</left_val>
            <right_val>0.3714146018028259</right_val></_></_></trees>
      <stage_threshold>-1.2683529853820801</stage_threshold>
      <parent>8</parent>
      <next>-1</next></_>
    <_>
      <trees>
        <_>
          <_>
            <feature>
              <rects>
                <_>
                  12 0 8 12 -1.</_>
                <_>
                  14 2 4 12 2.</_></rects>
              <tilted>1</tilted></feature>
            <threshold>-0.0847346931695938</threshold>
            <left_val>0.6124141812324524</left_val>
            <right_val>-0.5219835042953491</right_val></_></_>
        <_>
          <_>
            <feature>
              <rects>
                <_>
                  6 13 12 4 -1.</_>
                <_>
                  6 14 12 2 2.</_></rects>
              <tilted>0</tilted></feature>
            <threshold>-7.0060449652373791e-003</threshold>
            <left_val>0.5687494874000549</left_val>
            <right_val>-0.5856407284736633</right_val></_></_>
        <_>
          <_>
            <feature>
              <rects>
                <_>
                  0 7 1 9 -1.</_>
                <_>
                  0 10 1 3 3.</_></rects>
              <tilted>0</tilted></feature>
            <threshold>1.3264419976621866e-003</threshold>
            <left_val>0.3817653059959412</left_val>
            <right_val>-0.9656738042831421</right_val></_></_>
        <_>
          <_>
            <feature>
              <rects>
                <_>
                  12 6 7 6 -1.</_>
                <_>
                  10 8 7 2 3.</_></rects>
              <tilted>1</tilted></feature>
            <threshold>-7.3556019924581051e-003</threshold>
            <left_val>-0.2899537980556488</left_val>
            <right_val>0.0867969095706940</right_val></_></_></trees>
      <stage_threshold>-0.6390619874000549</stage_threshold>
      <parent>9</parent>
      <next>-1</next></_></stages></myhaar>
</opencv_storage>
